{
  "layers": [
    {
      "weights": {
        "v": 1,
        "dim": [
          64,
          20
        ],
        "data": [
          -0.005224592685168894,
          0.08613470192366506,
          0.29505903982542697,
          -0.18732225145281817,
          -0.03749449330864078,
          -0.5992898883937273,
          0.1460132570538495,
          -0.16734809793785127,
          -0.023973296868164892,
          -0.046047301775275606,
          -0.2671206625139786,
          0.17530814844360934,
          -0.18770184389037467,
          -0.03468476444560102,
          -0.089149112996519,
          -0.13497366215421802,
          0.16072880244613877,
          0.07691758840049423,
          0.13259084431946577,
          -0.21258987682047936,
          -0.03325119561373417,
          0.21024919430121383,
          0.303179070245013,
          0.27757502507908244,
          -0.22658993015307333,
          0.21291411496164564,
          0.08299275220518748,
          -0.1626149730280339,
          -0.12909387527298757,
          -0.02637349800689613,
          -0.1263128473007756,
          -0.1171071046288134,
          -0.0914258970811111,
          -0.012088991355209647,
          -0.17181852098692785,
          -0.38440850475325467,
          -0.030694341464983087,
          0.08259787193291972,
          -0.24005736819010617,
          -0.01764912030978076,
          -0.07081518991077132,
          -0.25477110264024216,
          0.1726976812827473,
          0.1661657593009348,
          -0.11774068495408309,
          -0.22675747115908723,
          -0.020064743181430686,
          -0.1467787826163,
          0.24095324185579864,
          0.3213627307841967,
          -0.1486698155507704,
          0.07172234217237208,
          -0.24599127077675303,
          -0.044796401884426656,
          0.0442639818244824,
          0.14828973251212374,
          -0.07847755020302431,
          0.019683918931181925,
          0.06187282658031339,
          -0.04819005661502407,
          -0.27027999226533167,
          -0.06899851824827519,
          -0.06006309121820436,
          -0.19033099927300143,
          -0.011919991617210739,
          0.029427700350061682,
          -0.09127380954908597,
          0.038087064840612084,
          -0.013952944631660621,
          0.08591509970507946,
          0.12475506612860253,
          -0.23084888985890373,
          -0.10695406279770087,
          0.18432502848535876,
          -0.012832007460781857,
          0.23668666601490215,
          0.08830076749194984,
          0.04798796062753805,
          -0.19158824253255585,
          -0.21163270265741882,
          0.012457729708545034,
          0.14395580102657266,
          -0.28691442605206124,
          -0.0727726247226397,
          0.16192660711593337,
          -0.009674922456651015,
          -0.15623289259166145,
          0.22568893505035736,
          -0.06819819460465396,
          -0.0797957542913361,
          0.03840354346724821,
          -0.28561366647189423,
          -0.043750621178072775,
          0.022154488655898613,
          -0.026670475406181157,
          0.002095603841383613,
          0.008894562967288864,
          -0.037468385301285184,
          0.3009796331333485,
          -0.012433040170529083,
          -0.13172325861002174,
          0.35202854143196277,
          -0.025056967879251185,
          -0.08841151483121668,
          -0.23640542210026538,
          -0.16204640935792947,
          0.019355228518531928,
          -0.04447763740077219,
          -0.06811118338951201,
          0.032117270031102686,
          0.052489269077719364,
          -0.007332540123293886,
          -0.05119339416881789,
          -0.2763121812348173,
          0.02899038201656791,
          -0.2856114191612127,
          0.005750498554104311,
          -0.23050962788781054,
          0.036643618047622624,
          -0.1394169793254294,
          -0.16513692492423349,
          -0.010531530917720806,
          -0.18812574476541485,
          0.04951255229309664,
          0.12527682365954967,
          0.2985334311983114,
          0.2634429135761326,
          0.1331661177766254,
          -0.296332574614112,
          0.09410306776427511,
          0.1051860884405235,
          0.3798177600658478,
          -0.17570871449838396,
          -0.0830407757963601,
          0.025949384648505124,
          -0.4447759931710031,
          -0.35977814381817363,
          0.23111776706098036,
          0.04114437380383428,
          -0.07649088895898368,
          0.2221373098962764,
          -0.0740237129289608,
          0.3935963288124781,
          0.12508041670074557,
          0.0912597097257813,
          0.25661910177780495,
          0.00002608382267783177,
          -0.25296507424811737,
          0.13178108620272383,
          -0.003017727232739964,
          -0.19941286457419835,
          0.07335832557926003,
          0.04798851846756285,
          -0.021747615633248445,
          -0.3052958295539786,
          0.0016835574447383317,
          0.060042576614858206,
          -0.14132309233259296,
          0.3680008291314621,
          -0.2433872750974616,
          0.050855962195421676,
          0.01678444819415828,
          0.1677148433771035,
          -0.2216686514474414,
          0.2162825245640742,
          0.06343295046210398,
          0.0758664589552601,
          -0.009376617198490991,
          -0.1896673116515425,
          0.2494834102560362,
          -0.0826091421909284,
          -0.03227657476645371,
          -0.003937375920402053,
          0.13873655342950447,
          -0.010431625091800477,
          -0.14452394736592314,
          0.054993412661498514,
          -0.11537668935671935,
          0.30425105760088655,
          -0.053849402329803245,
          -0.05083520214600418,
          -0.29517389102663477,
          -0.07443294493564125,
          -0.10694138771095883,
          0.024599034880183765,
          -0.01659475354779076,
          -0.015589421329988331,
          -0.1714692754099704,
          -0.027400528811483797,
          0.041451181207091126,
          0.19740852804018133,
          -0.1305699163614204,
          -0.2105681387378266,
          -0.0737749506747461,
          0.23830407303727744,
          -0.11237977670128552,
          -0.09655399669709594,
          -0.4038591855405895,
          -0.002638560787763304,
          0.06460853014405374,
          -0.06313858525023562,
          -0.2611507296024755,
          0.24691729771663098,
          0.020884179550962577,
          0.31048423149304144,
          0.10170421714655158,
          0.02419615886365309,
          0.058752763059613994,
          0.025379940715820115,
          -0.12607620547521986,
          0.027104118843929235,
          -0.13240835248278018,
          0.04213520773519956,
          -0.052996356716963414,
          -0.08126075422603211,
          0.04136346931666181,
          0.039872117171120575,
          0.08653997140556734,
          0.047233473568338194,
          -0.1983291584918836,
          -0.04665025771067843,
          0.14773921633913306,
          0.0845045674662438,
          0.22892098824943533,
          -0.24816812924295595,
          0.09001656210582011,
          0.21995737656151446,
          -0.4239819927904317,
          -0.02359190838469921,
          -0.1303099970958661,
          -0.036049759941889414,
          0.11507063291663608,
          -0.029762591250727652,
          0.25364730007946323,
          -0.18383533037257793,
          -0.09211529623962246,
          -0.0038228263083476405,
          0.13838517118913737,
          0.4285356411950658,
          0.1758466062188797,
          -0.12654599763488278,
          0.07567909242075477,
          0.3365566675609213,
          0.1329796714070243,
          -0.13126399432485192,
          -0.22444168133181513,
          0.30997664798094626,
          -0.15209838035004392,
          0.3101595517574832,
          0.2741729169905718,
          -0.05370410662467172,
          -0.06406609141879711,
          0.3151367721290006,
          -0.13287878347587087,
          -0.16817832843730723,
          -0.05011432936338999,
          0.012662117608844142,
          -0.0312996071694934,
          -0.09222368253225743,
          -0.010255157043194511,
          -0.14719276910318435,
          0.04925120953040842,
          -0.005889062033955519,
          0.09580406417631723,
          0.2664581147816531,
          -0.10451665157389707,
          0.16060355581293856,
          0.053252821110773424,
          -0.2134628973479375,
          -0.019641057088424382,
          -0.15095028402671584,
          0.1400022369561563,
          -0.17028334925845157,
          -0.010945629864238086,
          0.1886576388518481,
          0.03378558336237077,
          -0.08178403886362416,
          -0.001225541585966862,
          0.06335336085765199,
          -0.26910307430764535,
          -0.006481445173160384,
          0.09226229361384013,
          0.07160988837253257,
          -0.08752175102313929,
          0.3450408632815301,
          -0.13626167885471957,
          -0.033232942925192,
          -0.13426619678341564,
          0.1364897750058545,
          0.19371601934209054,
          0.01832514020312068,
          0.013720345614832936,
          0.22991930816503353,
          -0.21791381582506134,
          -0.15135619445273785,
          0.13802000276628795,
          -0.068064772752594,
          -0.22669777419270135,
          0.0033830149293582953,
          -0.10132195466917132,
          0.011852224253399823,
          -0.14144452138574526,
          -0.15071985628318668,
          0.1004129789837481,
          0.3059985692287884,
          -0.2939155258542358,
          -0.13383832885793212,
          0.022357613697407804,
          0.0081593744065925,
          -0.25113472682380245,
          0.06171209989044355,
          0.3191079686930445,
          0.21221909601131309,
          0.11720072500894173,
          -0.3348757451099102,
          -0.031789681530885586,
          -0.1957208719864553,
          -0.04562430508406683,
          -0.02834677969634293,
          -0.00457710480896964,
          -0.1794631823527983,
          -0.19076895894898396,
          -0.05867224786405345,
          0.04731705039099477,
          0.06834068685838088,
          0.18982575063749413,
          -0.18112871480419948,
          -0.14898729906033747,
          -0.07195405929070925,
          -0.3200070213403001,
          0.03265814286079496,
          0.02986525640329403,
          0.007201640425739453,
          0.16162617074453528,
          0.2084645248389051,
          0.1929916622110897,
          0.1267116222127621,
          -0.1825071536526732,
          0.17340890398386713,
          -0.09560481916673935,
          -0.026695496436200342,
          0.011871291361726884,
          0.0678621725249069,
          0.1002978824725532,
          -0.09940025607620691,
          -0.012981064920236193,
          0.34160903879665505,
          -0.2802316882618076,
          0.22492443816140084,
          0.1565845941264487,
          -0.14859473718364588,
          -0.12749907484871714,
          -0.4212100568735747,
          0.005433800854281148,
          0.10198030664128979,
          0.08710193917407082,
          0.005319734013947343,
          -0.02808882735864021,
          -0.16866215334262138,
          -0.024900284689690702,
          -0.2160708697931376,
          0.1701898119676356,
          0.2557831348361771,
          -0.03578271942130495,
          -0.2871617469200734,
          0.021628707135055943,
          0.30448255936123336,
          0.24184597750710518,
          0.08560414308351537,
          -0.018518411440709183,
          -0.002061231178481944,
          0.35550487032603656,
          0.10215994777534276,
          0.22280437159368977,
          -0.18721470745684304,
          -0.01861388259056712,
          -0.2047223912177601,
          0.22485699202294096,
          -0.1923084222737103,
          -0.32413113009814065,
          0.0326818323333634,
          -0.16107876287447329,
          -0.018640187669874082,
          -0.1330588805993067,
          0.09342638054319934,
          -0.09233531844559247,
          0.17436867797744512,
          -0.05595824476947435,
          -0.05512301784390404,
          -0.12815680470394075,
          0.0784648521931777,
          0.037179390801658406,
          -0.004552439026209238,
          -0.23814910514286067,
          0.20353292988062474,
          0.020099280612409856,
          0.0026998360278908604,
          0.10675562459540361,
          0.27388843563424753,
          0.27314097043732966,
          0.14537092257204376,
          -0.1372123541602549,
          -0.02362361642896473,
          0.07506713386438377,
          0.07414053924887477,
          0.2539936671591574,
          -0.3189420562562102,
          0.09208067953726387,
          -0.1265836390163586,
          0.27032926421125525,
          -0.08316669321886382,
          -0.07856790281421865,
          0.07980421193623924,
          0.07241209687614923,
          -0.19182249954275188,
          0.42658820678309767,
          0.2865686097354902,
          0.08121539103092974,
          -0.09879815315829421,
          0.1153929302179095,
          0.025859405553975222,
          -0.08767376452831105,
          -0.03091894925428644,
          0.128428226187,
          -0.03423623501141404,
          0.0668392009775782,
          0.34166677647484445,
          0.10565567227809511,
          0.22110748748598874,
          -0.39619244070793835,
          0.05392149049525384,
          -0.285132094227502,
          -0.2039135949648701,
          0.16604027915950823,
          -0.07357112149146802,
          -0.03670766190657721,
          -0.0775518577688817,
          -0.36781022680759956,
          0.2070926634727537,
          0.14793203590584109,
          0.15649007410401436,
          -0.001133414158271992,
          0.19688965959435886,
          -0.13206349571003573,
          0.0450139065055561,
          0.1737897458270133,
          0.07861735231316784,
          0.07297915967321984,
          0.16125550684009846,
          0.007547507278898344,
          -0.025055862911942204,
          -0.12703248232730746,
          -0.07290991859549757,
          -0.11882124150792936,
          0.12102833403350738,
          -0.015293289132263022,
          -0.20254696617191126,
          0.2648314569718469,
          -0.3535601838146118,
          -0.1977441322406706,
          0.23930303834046987,
          -0.17255152656354988,
          -0.08644012239354001,
          -0.25645181807463713,
          0.10373149208992302,
          0.171664365673752,
          -0.113763208470988,
          -0.043326656600113686,
          -0.044564557863941694,
          0.014887383521550501,
          0.09678304596154737,
          0.2577210417825181,
          -0.028354993116941195,
          -0.28770559127283774,
          -0.07623547851364065,
          -0.1495624113967615,
          0.25319482115807135,
          0.10718579950095752,
          -0.09438773646368431,
          -0.04782139435488035,
          0.19010650193276482,
          0.052274657971202315,
          0.11034041479101207,
          0.05500196630092175,
          -0.03738568619416905,
          0.10666701781404006,
          -0.24170267487686703,
          -0.08877165927934866,
          0.1324183167011747,
          0.11808648159184737,
          -0.04154520456994577,
          -0.05856273307708554,
          0.2608771384367372,
          -0.201259176019984,
          -0.22868506625571178,
          -0.1269134047200203,
          0.0003668318841374106,
          -0.066742051428804,
          -0.10000345824089416,
          -0.034830080828742,
          -0.03518536626904843,
          -0.013988573610751044,
          -0.21396823702136045,
          -0.09783469391320132,
          -0.20261761292835873,
          -0.14601085426658708,
          0.022956681043208072,
          -0.17809421653564195,
          0.23042009813338138,
          0.06476550822623402,
          -0.3122790240616503,
          0.016309021472482244,
          0.009591914390579118,
          -0.4079236413396876,
          0.09554953937607585,
          -0.035173282251264426,
          0.6720486194966617,
          0.3586872072441355,
          0.033271264696299374,
          -0.13029590463564583,
          -0.01355859233813491,
          -0.17348505894949298,
          -0.1919132217537627,
          0.2116010723499717,
          0.1697394300144472,
          0.29767272963760544,
          0.22832339238129773,
          0.09232959444857322,
          0.03217461586707176,
          -0.34973513896116526,
          -0.3904754525479458,
          0.008065926691395317,
          -0.1335334095618098,
          0.03419556065552299,
          -0.020075185249694316,
          -0.062312461331131115,
          -0.18793419475264939,
          -0.07576135980765594,
          -0.06307224113187565,
          -0.09288111207889617,
          0.18622437180349444,
          0.1482172390827721,
          0.15563949290170834,
          -0.025412531291725785,
          -0.04185619232514166,
          0.09014177314819072,
          0.04948742325855095,
          -0.05268699053756221,
          -0.07165931032974282,
          0.1849004784582893,
          -0.22989121964663795,
          -0.31134757577757016,
          0.20382481165726113,
          0.14372756301032324,
          0.03391713414734933,
          -0.16164824920044513,
          -0.5452795857986684,
          0.2193554502787312,
          -0.08918905915228956,
          -0.04181641969835844,
          0.047463128057181815,
          -0.06116498471326078,
          -0.02820751492324719,
          0.209154264238965,
          -0.005109501761030047,
          -0.0563702311366857,
          0.1600507577446901,
          -0.060519403575436545,
          -0.0670026053345635,
          -0.294388593152738,
          -0.17937265351919857,
          -0.10753463465107088,
          0.029093121804090835,
          -0.03190589743431931,
          0.17819525959735,
          -0.39118158020392474,
          0.11091105680578409,
          -0.0366876960156127,
          0.08637766808436809,
          -0.17268256335500232,
          -0.019998452303459036,
          -0.1571618975593536,
          0.0011507033747379094,
          -0.0012029121723102984,
          0.1696015008919331,
          -0.14707551242266687,
          -0.18951762677890183,
          0.03269565056643022,
          -0.30983715361986686,
          0.016867340107243847,
          -0.13714645240445444,
          0.11045973575274579,
          0.15796730865079556,
          0.17275378328559318,
          -0.038759705569213834,
          -0.04295651741526177,
          -0.24015872746148706,
          0.026920343104909844,
          0.2917219237712301,
          0.0951059215390676,
          -0.19162592553861416,
          0.18869579535804668,
          0.19364671509956408,
          0.04739063898475972,
          -0.012792076639668484,
          0.009274691002795887,
          -0.20275493532635272,
          0.2962143630053756,
          0.20223107998433604,
          -0.25588428214943737,
          0.13099293980643242,
          -0.028417777832158136,
          -0.07473952459072812,
          0.18816025231226768,
          -0.15269510585775298,
          -0.0434046821845263,
          0.1363889178967997,
          0.12068334448152959,
          0.1430593106364227,
          0.17564882758927317,
          -0.0849540516259284,
          0.12257402975641953,
          0.024762105905724308,
          -0.056908291924611366,
          0.07182241536116075,
          -0.14483764058021592,
          -0.04010791981891501,
          0.2258353259697837,
          -0.19815569630826346,
          0.27541634368540613,
          0.02325500892693095,
          0.30602545977595647,
          0.14848886156329313,
          0.1270363920261291,
          -0.003994216423824982,
          0.1652962894587844,
          0.17209742000255035,
          -0.17323383649286264,
          -0.08192811469807458,
          0.04140511499477008,
          -0.266526331605417,
          -0.02945700308417548,
          0.09521378507399135,
          0.19327402052394446,
          -0.11267926414549762,
          -0.141882753114112,
          -0.011251117266588388,
          -0.011816111989556385,
          -0.09771064925264106,
          0.09975897581304749,
          0.23614657829852279,
          0.23759707700822008,
          0.05148221812075055,
          -0.014738181919497086,
          -0.026787995474990296,
          0.3621479557200992,
          -0.04390175915972933,
          -0.12857828256809112,
          0.040390893232197966,
          0.03748079451825555,
          -0.2564604830400683,
          0.05495680301404825,
          0.11072588039761254,
          0.1670056478831418,
          -0.05502738335520316,
          0.12000423762663932,
          -0.002900299561726289,
          -0.2141247712098006,
          -0.15795971403416242,
          -0.09891207691355731,
          0.3048350129933789,
          -0.3419139991649782,
          -0.08370503657741302,
          -0.19420860910964352,
          -0.33494893712972207,
          -0.08506564162977637,
          -0.23165814817870828,
          0.2256317672856117,
          -0.11291686178419247,
          0.022316529173606853,
          0.13507288337001988,
          0.1335495309904821,
          0.31072572116966574,
          -0.24306688718882793,
          -0.3321319348823545,
          -0.22214744177237178,
          -0.1561321590418851,
          0.0047025935892480025,
          0.011724637725900627,
          0.10053191791945748,
          0.12925879164495868,
          -0.24334231714803353,
          0.196065860900051,
          -0.08944464888843257,
          0.06624848793187882,
          0.03906564730532915,
          0.158072083286956,
          -0.10236541434077752,
          -0.09152489474152922,
          -0.0519013234473242,
          0.10816223770150456,
          -0.034286986459456076,
          -0.007212490427773647,
          -0.08322702089179206,
          0.006346998340742944,
          0.047850575871940776,
          0.3125420222188833,
          -0.05760978274521963,
          0.009328396130422849,
          -0.27148685380958015,
          -0.050355671146361705,
          -0.08568338880357469,
          -0.0841796451056169,
          0.3515382925192873,
          0.047074273927649804,
          0.02371065537744553,
          0.2653458988627432,
          0.25979759456981155,
          0.17258851521124896,
          -0.009572389441360796,
          0.043692378728244184,
          0.3022291465441309,
          -0.005698718020499767,
          0.30316028976169623,
          0.15719323071995056,
          -0.310331745900731,
          0.255049801095546,
          -0.08775884051456327,
          -0.1661529421626237,
          0.09223366851819129,
          0.017604617169028714,
          -0.08639067770663196,
          0.11408600912162133,
          -0.09960086364996697,
          0.09614205360710422,
          -0.07307337769304718,
          -0.24087200089479693,
          0.10709473251018262,
          -0.27671395220733197,
          -0.3808902019302145,
          0.04456474374306085,
          -0.0004410730791109922,
          0.009341764942028187,
          -0.11565202096094042,
          -0.16457276471676976,
          0.031604395878109634,
          0.26484819541482907,
          -0.14350256421114715,
          -0.1045592626014476,
          0.1454787782894889,
          -0.07917508360683852,
          -0.25829540442094595,
          -0.17154591961970017,
          -0.025634185274173497,
          0.5075969208332647,
          0.18455778517933952,
          -0.08468625827561534,
          -0.23117554324671682,
          -0.18467519719383357,
          -0.0852158185118233,
          0.12419282519957196,
          0.2074951255161374,
          -0.41791990284772423,
          -0.07015595343672253,
          0.2321474552169851,
          0.23814519189945907,
          -0.1131475334830062,
          0.3222075562533745,
          -0.12224837261744254,
          -0.20507150808537022,
          -0.03458408346918317,
          -0.17985107187364083,
          -0.1762240058316414,
          0.03559122107138969,
          0.38842309150667764,
          0.0561693600090345,
          0.2172933723762947,
          0.43611411913125986,
          0.1596625844565736,
          -0.04737620658314193,
          0.05691391601162973,
          0.0781889416277191,
          0.16187972640556936,
          -0.16749422973688494,
          0.16977738442699708,
          0.00940553766774773,
          0.07317855270791601,
          -0.08261399792557109,
          0.0035273563599812346,
          -0.057588244600270594,
          0.019717801561795617,
          0.15439190878761067,
          -0.04497521376509378,
          -0.04533503859582011,
          0.1935154346839308,
          -0.23355722059363063,
          0.29479818401718394,
          -0.06946649044228632,
          0.2828947563959917,
          -0.18655300096106486,
          -0.20571711130663692,
          0.18936036285448185,
          -0.3029007911494767,
          -0.10807010116893102,
          0.040920173255995666,
          -0.1413243906266015,
          0.07866155553736492,
          -0.3309454786944223,
          0.09620213543446175,
          -0.1208679112954287,
          -0.05729496964272557,
          -0.34109276036099256,
          0.11978991858100274,
          -0.1927217901970897,
          0.010290608618576804,
          0.16018334234204043,
          0.12783611210707052,
          -0.1914045701335895,
          0.04535686214401956,
          -0.0335300687168946,
          0.04711426569403779,
          -0.03627999301071137,
          -0.16667276472360026,
          -0.045806384887012885,
          0.18202967087857916,
          -0.313930369128875,
          -0.02964244043677669,
          -0.027449384916599234,
          -0.29669758565513127,
          0.27458237134302665,
          -0.06724699355884446,
          0.14357214633429102,
          -0.03341538156085232,
          -0.022478616653363537,
          -0.015241004422575172,
          0.19708356899723276,
          -0.07230173740953494,
          -0.2550760698939908,
          -0.025227246326503715,
          -0.24061695431636326,
          -0.04701419052928442,
          -0.05567022168327395,
          -0.27100002213344626,
          0.06335554702003746,
          -0.06297671772633726,
          -0.31912067346714384,
          -0.26264151252322315,
          0.041847019507005374,
          0.055733557488133564,
          -0.18314241909410878,
          -0.06717603408954716,
          -0.2046722855291414,
          0.03248730626885767,
          -0.27872678707043,
          0.16589361763699614,
          0.1895160171084078,
          -0.1433427624412094,
          0.15277065444409102,
          0.13133220256871975,
          0.01749068921780622,
          -0.06617721988937876,
          0.0466827188441174,
          0.06464357731039208,
          -0.019148748575169496,
          -0.12146706011332005,
          -0.03685241266338873,
          0.10844157259779547,
          -0.060517317515569255,
          -0.08050917751805732,
          0.15641476366913973,
          0.08591494201601248,
          -0.10196149639237442,
          -0.1450586221322288,
          0.03245600127281009,
          -0.11267142109127515,
          -0.016412072833995116,
          0.3107597537855464,
          0.14615957698372167,
          -0.11774955030571649,
          -0.04852830868157122,
          -0.05107078927561764,
          -0.24459445792549434,
          -0.15993766003861604,
          -0.3261377850223604,
          -0.01031070845674218,
          0.012465445664504748,
          -0.4276635870976251,
          -0.04811956628001861,
          0.11484313679113031,
          0.1628741988302582,
          0.053711806058791396,
          -0.06557679001303333,
          -0.1932403770243148,
          0.4520521433541642,
          -0.21942109626447465,
          -0.02560267333689916,
          -0.18133030823947358,
          0.03392296821281182,
          -0.499536159038541,
          0.03572824912106736,
          -0.1810253074301963,
          0.05161166605525541,
          0.4235912211436599,
          -0.04746052200315612,
          0.13614614585423523,
          -0.10850577576654234,
          0.2532447671242343,
          0.13981443462377532,
          -0.04992612699049209,
          0.1256416374092723,
          0.37288120242600714,
          -0.184306341637059,
          0.09914266327809068,
          0.15076048423628258,
          -0.10947020347465047,
          0.1340136611919782,
          -0.24987020002415855,
          0.278095182437957,
          -0.0648676833867525,
          0.1204156304396264,
          -0.10834209329636726,
          0.1000420157615384,
          -0.004986569219380545,
          0.024019030288787657,
          0.05398127716823803,
          -0.03160288544815224,
          0.10399152728253722,
          0.06454711502342152,
          -0.20942029495338824,
          -0.2965915087569611,
          -0.12959584037735275,
          0.013695296692505195,
          -0.04611349416768971,
          0.11281007801824373,
          -0.04118659059348177,
          0.20825148812439404,
          -0.11817144517884723,
          -0.29106307254342234,
          -0.07636920672875865,
          0.1677627417412074,
          0.11628982411991838,
          0.19755210100008436,
          -0.05505595392626082,
          0.13964916102498795,
          -0.13658767015394135,
          -0.1683573760279798,
          0.08746350431849184,
          0.04716165015652059,
          0.03279766915919001,
          0.1682449927440799,
          -0.09950949664536153,
          0.04811879592541314,
          0.17235437600602235,
          0.11770758575301787,
          -0.013708172618190635,
          0.19509010498620105,
          0.06588787474123527,
          -0.1191130110076791,
          0.23745312849286412,
          0.3255413731121599,
          -0.03463427668580076,
          -0.16763016934060287,
          -0.4129348930527738,
          -0.1277488920222813,
          0.031075039644500178,
          0.12574870337934044,
          0.0774389765691563,
          0.02646741580680782,
          -0.2060855480866639,
          0.005214053953380038,
          0.18597743853241164,
          0.060613171409277175,
          -0.19124018857933917,
          -0.25265326493053425,
          -0.13480044814405495,
          0.0891891805898826,
          -0.24816510149981985,
          0.36743935925096965,
          -0.08054365183499765,
          -0.07680984746602554,
          -0.018585904231579325,
          0.0508181326742511,
          -0.3014785440699199,
          -0.19178272077256367,
          -0.13948752603061607,
          -0.18163164233768425,
          0.015503218237728694,
          0.011233083888063329,
          0.3618723989698073,
          -0.2511065691730698,
          0.03816032333204845,
          -0.011803256884629463,
          -0.10832005969479185,
          0.17474156227844403,
          0.011051218882560325,
          0.0939143442502895,
          -0.0909027051789622,
          -0.11043508690409468,
          -0.16256447691534376,
          -0.1757788973220764,
          0.3585719510983235,
          0.29131624390457594,
          0.11304903117062481,
          0.12599400809288064,
          0.10056713809073012,
          -0.17257723164233524,
          -0.10818780347083005,
          -0.10624646373313491,
          -0.12978775936315384,
          -0.3716401593352091,
          0.025956201104627603,
          0.34660943778658104,
          0.08247585667270839,
          0.010709930503930147,
          -0.22161442770691908,
          -0.029425249243244293,
          0.21416412953500857,
          -0.24853569123253888,
          -0.013288692532723453,
          -0.15071289263678195,
          -0.22128536925524184,
          -0.0740757982702832,
          -0.12552311514019793,
          0.11814677096726603,
          -0.31047151460916933,
          -0.18661848748946985,
          -0.08919071922121315,
          -0.08853106783827892,
          -0.2167415288691299,
          0.41466642986900865,
          0.18179031523685182,
          0.044980037660641264,
          -0.18267458215408983,
          0.00041150530075943423,
          -0.2736259576125402,
          -0.04094128070022339,
          0.01261078002919934,
          0.24469518688383252,
          0.08993932474376123,
          -0.2649200482230144,
          0.1395972360018431,
          0.23367124644291087,
          -0.05092813994367504,
          -0.0973539935500886,
          0.17257382117999534,
          0.11681059753922034,
          -0.07080526733710954,
          -0.030320277247987693,
          0.12045516819588603,
          0.08845831575200604,
          -0.11322850867722704,
          0.2726766025987589,
          0.09539711323806542,
          -0.27818669204875485,
          -0.031301833255576075,
          0.16689962759700333,
          0.055079732125502164,
          0.08945184663511349,
          -0.029131984732043446,
          0.3588725007362259,
          -0.16536737433039506,
          -0.10821722728145994,
          0.057516551059762534,
          -0.18715082204894115,
          -0.005628825601712323,
          -0.2917809429666929,
          -0.017747244364425645,
          -0.004993571004462419,
          -0.01017776882965954,
          0.22885593033299062,
          0.023621123223278716,
          -0.1308171948130329,
          0.042345744152217105,
          -0.035072467121709076,
          0.24422375155563866,
          0.019166043390893693,
          -0.23496220390397923,
          -0.04221272440038907,
          -0.18584377708668165,
          -0.23743697976473535,
          -0.18744663557306235,
          0.02599488583743034,
          -0.26217540992732974,
          -0.10974170209530014,
          -0.034233488024671944,
          0.1616049194489472,
          0.1519984578166199,
          0.04203067285545269,
          0.10184008079564275,
          -0.04443484610078551,
          0.19994798661149793,
          -0.14466108325964963,
          0.20096710252899047,
          0.13644285044481963,
          -0.09100376569737217,
          0.3081436113195639,
          -0.022617436585696836,
          -0.023284715063201088,
          -0.13334753277922143,
          -0.10852070033301411,
          0.22838219954717365,
          -0.04279707755208918,
          0.056401655494355114,
          0.052498376856806285,
          0.12787215637183508,
          0.05890439205939429,
          -0.021061661667732767,
          -0.1277480117487765,
          -0.10086767246301685,
          0.07611151015221367,
          0.16689693918091497,
          0.049506994463345874,
          0.02937143888286229,
          -0.255728611396842,
          -0.1373601641583498,
          0.1560357101805144,
          0.02072783726332813,
          -0.10012236779107657,
          0.07558392047704988,
          -0.12879978076920362,
          -0.0001746054687824239,
          -0.12283885221167992,
          -0.08628600578763762,
          0.09028034483275091,
          0.12155263516128781,
          -0.0679085151399084,
          -0.20915119671010157,
          -0.03894999827129249,
          0.12908930088446513,
          -0.022795670943495463,
          0.1946183225938686,
          -0.2462684086797242,
          -0.06974204626983094,
          -0.09758344280612297,
          0.02898971180357674,
          0.05999403874345063,
          -0.04731851883923967,
          0.16226231069168834,
          0.07434580453214723,
          -0.1213831080613436,
          -0.13504070570624283,
          0.011053694330772836,
          -0.3466064433012724,
          -0.1742196316529805,
          -0.09424953627618007,
          -0.0729450028818139,
          0.08011380471683721,
          -0.023974355299257673,
          -0.09527705367913872,
          -0.14699455235541647,
          0.24457046556695966,
          -0.15089356205275853,
          0.09920302781814494,
          0.2843447948321979,
          0.2396538070832901,
          -0.16016362755321667,
          -0.09717939259978586,
          -0.016104974949946716,
          -0.10387224621238472,
          0.30609579607085363,
          -0.2277121849147188,
          0.28986029002439456,
          -0.19581159168937382,
          0.2482277666520325,
          -0.16477970652000573,
          -0.05008318715474394,
          0.19683039968960186,
          0.0475329653936164,
          0.13084852118672802,
          -0.041422184681604975,
          0.09669851335211906,
          0.23576977293221232,
          -0.07117780016851714,
          -0.15616173771250977,
          -0.08171584866567763,
          0.042901028346317926,
          0.0023349870194251388,
          -0.07966357812819269,
          0.3042421936326298,
          0.022610210597884903,
          0.06809225981023588,
          0.025762261105546625,
          0.1710254007254281,
          -0.034571215322224846,
          0.04465098748439025,
          0.11049541458801317,
          0.0012661449507625003,
          0.06484513409607734,
          -0.06096360316845932,
          0.16690408260615575,
          -0.1978328720294767,
          0.1272457518315394,
          -0.012574120905344589,
          -0.002855684335608264,
          0.034641470026762496,
          -0.23604514533619617,
          -0.10686320863391893,
          -0.24915821171379693,
          0.20701624457068524,
          -0.0005088594399297042,
          0.056616729362743895,
          0.16992190496156262,
          -0.012132231120672132,
          -0.21198675303346826,
          0.08324467463176581,
          0.34770960345502167,
          0.10164708228548544,
          0.14561217144474564,
          -0.12680981383764667,
          -0.00823140953316788,
          0.14513350660910562,
          -0.003583529122007899,
          -0.10114483997940438,
          0.12047686693695256,
          0.07527600998070857,
          -0.17774950435023235,
          0.11247763636469797,
          0.03543434513319839,
          0.08978507129382163,
          -0.13545588873969297,
          -0.023002079419033046,
          -0.11515978838709685,
          -0.03118371232166697,
          -0.1760085253018282,
          0.19403290530885497,
          0.08178078854673859,
          -0.08317222837373532,
          0.09080208371097884,
          -0.09061850443755594,
          -0.22280699246946667,
          -0.10453710957443176,
          0.33562264651027945,
          -0.12417791361154379,
          -0.1324285357625114,
          0.29681570004100954,
          0.2867603060318593,
          -0.24436489252472424,
          0.0671085258321221,
          -0.002757504887147641,
          -0.23417548920329928,
          0.3277106727018141,
          -0.2047153343522572,
          0.19989383153624454,
          0.014417456785237745,
          0.31871798685062036,
          -0.04832413827725131,
          0.06553767303313746,
          0.03922770890078467,
          0.0055443104985634165,
          -0.05302644669658486,
          0.021532959376792588,
          -0.16879760937984145,
          0.15923547847789796,
          0.04212400629027559,
          0.07740867429154795,
          0.09684227068787746,
          0.11222252222899078,
          -0.07575524379740059,
          -0.09984068690656449,
          0.18126914913930833,
          0.19493271147369168,
          -0.2797409039827923,
          0.03350555160596817,
          -0.03121043664233332,
          0.12960937374827924,
          0.006770012292868964,
          0.0521743566268117,
          -0.22879219502800005,
          -0.1612359071758919,
          0.05621399500504906,
          -0.04621992787252034,
          -0.3427122711569145,
          0.072240264418122,
          -0.12344857521369838,
          -0.09317591258859569,
          -0.017996840402002237,
          -0.07619633249795779,
          -0.2522824781684402,
          0.11927376269270203,
          0.05902241451589815
        ]
      },
      "biases": {
        "v": 1,
        "dim": [
          64
        ],
        "data": [
          -0.013156805880068739,
          0.11694457340346137,
          -0.014882921277324254,
          -0.05845119726967429,
          0.011473663772190765,
          -0.009795887535792122,
          0.07066620676042953,
          0.0046167699224399505,
          -0.10450117343332296,
          -0.007898182979236768,
          -0.03480248335728921,
          -0.033862292350661176,
          0.0,
          0.001022742199157236,
          -0.025989697856443096,
          -0.0677395837190292,
          -0.053800340114856564,
          -0.06409764122306533,
          0.1323263623283912,
          0.07040783673845369,
          -0.062926964686969,
          0.03105635000581955,
          0.0355611975094121,
          -0.05471095876931335,
          0.0,
          -0.009568448920291857,
          0.045636344657544466,
          0.029563344674668042,
          0.04949928009336277,
          0.11171795181681658,
          0.0346238320936227,
          0.0676915295848073,
          0.0,
          -0.00018481464394857108,
          0.0008287519685306428,
          0.11160481281619727,
          0.0022980905967696676,
          0.058650988396765365,
          0.0,
          0.05293616943921059,
          0.01602077246628722,
          0.0531841077155957,
          0.004715496205482332,
          -0.006059503785259497,
          -0.03411277204259172,
          -0.02395256228989283,
          0.12209369253843044,
          0.010223931225956356,
          0.0374910563106084,
          -0.0777561761634798,
          0.0375525034827772,
          -0.16675875552955075,
          0.0,
          -0.0057326356259848645,
          0.0579087213415583,
          0.06559144445443592,
          0.03485232233533424,
          0.030654547110756443,
          0.022837206843332007,
          0.057440116732716553,
          -0.026599702658232215,
          -0.003814773656684846,
          0.04573574099461922,
          -0.06273231178401467
        ]
      }
    },
    {
      "weights": {
        "v": 1,
        "dim": [
          32,
          64
        ],
        "data": [
          -0.25988474583595017,
          0.02739888388185535,
          -0.049758701611926595,
          -0.21139048405478617,
          0.21572069400314686,
          0.08145871039115085,
          0.08867214665631488,
          -0.30079630820650555,
          -0.14767993384433936,
          0.19560167966047312,
          0.024300057828426008,
          0.18679917300511653,
          0.11082519301754373,
          -0.06984229352902606,
          0.0822991776203191,
          0.15977157337887807,
          0.17155508666323338,
          0.20039859693725828,
          -0.06772629494515156,
          -0.002759158741208929,
          0.17242174698634555,
          -0.02440370423843205,
          0.020147363588793057,
          -0.05358037875263557,
          0.002855221193447062,
          0.14760862239436592,
          0.07339203933062642,
          0.11912117188579496,
          0.22233909066853633,
          -0.11984311898843933,
          0.30890090287869576,
          -0.21395038940648148,
          0.037721963775459375,
          -0.11698194464214946,
          -0.0737721818284213,
          -0.038852272127357604,
          -0.08227643209923412,
          -0.25230070640841185,
          0.17887109373004045,
          -0.15034237855052063,
          -0.04706748017561374,
          0.28200492141616684,
          0.0889785654557041,
          -0.056973475182872574,
          0.1920755135878304,
          -0.1648159150249727,
          0.3335522275229674,
          0.17215958823434507,
          0.32815079168889644,
          0.08990651290693767,
          -0.081375391125255,
          0.026633549220450345,
          0.1298438687588751,
          -0.03850001547442064,
          0.14668360114379242,
          -0.1719334411036614,
          -0.1178773422084071,
          -0.28766894419708555,
          0.24797123264232646,
          0.03768413222229708,
          -0.026109322128043705,
          -0.03943115777579126,
          0.12380186674453617,
          0.16550656886555906,
          -0.011325583356171929,
          -0.061376147756524495,
          -0.18135886718880576,
          -0.016138342271739093,
          -0.13263395200207126,
          -0.031202508506067025,
          0.11695641566947798,
          -0.1281285071372656,
          -0.16566994474831664,
          0.2226752991095598,
          -0.04660542242124632,
          -0.17103368217514037,
          -0.0977891587411611,
          -0.586844439901427,
          -0.3356211792826141,
          0.17996551664550375,
          0.1298988413505004,
          -0.093727317929845,
          -0.0547879636292609,
          0.03027188225751211,
          0.15052995879594372,
          -0.04224569751141639,
          -0.26666747855332423,
          -0.0564596411445113,
          -0.15986189322143957,
          -0.005206728752046311,
          -0.3036778229885839,
          0.050650412368933195,
          -0.008917886253046278,
          0.010131016845904,
          0.06988320121788219,
          -0.08892857892800295,
          0.020488587823718714,
          -0.3121627520052883,
          0.014737644849092891,
          0.10080147160244217,
          -0.18209007688637874,
          -0.06879615428656456,
          0.32082161385729313,
          0.07046203855321102,
          0.12190288087211189,
          0.04907166721534533,
          -0.06278080563285168,
          -0.06054646946768494,
          -0.028485337017409768,
          0.04011109009215447,
          -0.1838842860051804,
          -0.21834467304471716,
          -0.11900485362774228,
          -0.004080022909240089,
          -0.02818136238182173,
          -0.04085638531648755,
          -0.06856550452200594,
          0.11852548532131624,
          0.1678836996257248,
          -0.11685339334723106,
          -0.01753814981401891,
          -0.0572877178848579,
          0.0744310995019301,
          -0.05837770989691304,
          -0.11095701990614269,
          0.031886482702870436,
          0.12299171965881567,
          -0.2379175663432318,
          0.07986889396659734,
          0.01799231642623693,
          0.3140079743033142,
          -0.016717823362881974,
          -0.3093651132956423,
          -0.15869679245594095,
          -0.0962132734992309,
          0.29574839997150515,
          -0.28014509564051204,
          0.0929359593344155,
          -0.3630631974328521,
          0.146988873126374,
          0.16815408012057836,
          -0.21699090269603832,
          0.1751063464806833,
          0.40723531850322053,
          -0.15627943673667177,
          0.15902388984210786,
          0.16161352802800483,
          -0.11065767394869447,
          -0.08359652379670504,
          0.20215872846430288,
          -0.19822630489235488,
          0.25945683748858916,
          -0.006853221303678606,
          -0.029337642762846797,
          0.3579710920428498,
          -0.0586866002379358,
          0.04570810293167734,
          0.17321171904327015,
          0.3803648430976551,
          -0.05298820226339874,
          -0.11691352005614489,
          -0.15662214997310253,
          0.0452408905472262,
          -0.0055121848715862535,
          -0.21418137082224611,
          0.19727638540949383,
          0.04395561779208196,
          -0.053235362251620295,
          -0.01803804813941304,
          0.045295513449345674,
          0.0899107462577537,
          0.08891434386840463,
          0.04280532445207619,
          0.13109333556987657,
          0.00046053898212171027,
          -0.13366337533386136,
          -0.10162122174200203,
          -0.19456621463668483,
          0.016139296999628003,
          -0.11204635101066018,
          0.014810318529795714,
          0.03468451412905808,
          -0.13436193953341508,
          -0.11984036795959732,
          0.07315259821988641,
          0.2148763485052254,
          -0.26088440521839845,
          0.046045667184590355,
          -0.06974230473231302,
          -0.4397522615404966,
          0.2368773027211523,
          -0.04319311441418737,
          0.21511229939194054,
          -0.13066977278363962,
          -0.037805090569368864,
          0.08770240368358659,
          -0.10568761523752349,
          0.09224909327998873,
          -0.004478709380647643,
          -0.03333701066314103,
          0.2869059755703395,
          -0.07564073438026143,
          0.12169633953528412,
          0.19851676119766207,
          -0.022940200902419196,
          0.08789140581285057,
          0.04494722738330485,
          -0.044958860235188344,
          0.030580722910351545,
          0.029248062539506937,
          -0.2378238981278356,
          -0.06474195344983474,
          0.33017647665637945,
          -0.13084110394313914,
          -0.03280743051665614,
          0.31888079162681965,
          0.24047910613386575,
          0.18224697297379033,
          -0.18540923900012246,
          0.1628653924361635,
          -0.07489074348606672,
          0.223595468869417,
          -0.06905009689878153,
          -0.12187543393781701,
          0.051524517263131515,
          0.08747124706682462,
          -0.2342629952232359,
          -0.15724851115180175,
          -0.06134612773698535,
          -0.06236268309831629,
          0.1433998172985583,
          0.1730298075891411,
          -0.2576778641508378,
          -0.05480018045653719,
          -0.05261998240998089,
          -0.07644011478761085,
          0.1068132159255217,
          0.17522731881552148,
          0.2802656390416777,
          0.15342212545859074,
          -0.14115573676381346,
          0.2187965542221999,
          -0.30902189634445376,
          -0.060249757542098964,
          -0.2943816375803357,
          -0.04702017660970107,
          0.14443418080640613,
          0.051994002224655604,
          0.05395203748860969,
          -0.02576763423275455,
          -0.17785500543478955,
          0.17436695107348282,
          0.17411741172310358,
          -0.3228595609088904,
          0.1083179406171571,
          0.05398776196737823,
          -0.004690911640266068,
          -0.18871774710216307,
          -0.10028998712049117,
          -0.15444613999502838,
          0.03928928152265311,
          0.326313357879625,
          0.10279111789435319,
          0.16575700188799428,
          -0.14182873403453689,
          0.183141366059883,
          0.2765842253100972,
          0.1972182944300238,
          0.18715115341945773,
          0.3543625587790674,
          -0.11646579857008714,
          0.15631247722660507,
          -0.13369708892639223,
          -0.2557464760980741,
          -0.10054072337219057,
          0.1951837120125272,
          -0.037098284135425694,
          -0.08129009778126,
          0.0676400331727769,
          0.037971878136872764,
          -0.11119366086311162,
          -0.21938978811926713,
          0.09493770181913783,
          0.20458834930404102,
          0.2323839122158661,
          0.01016896713050712,
          -0.15147368445299514,
          0.009439779954254345,
          -0.008996493316772818,
          0.21646802889856784,
          -0.18006940868493293,
          0.1247592799978719,
          -0.01725767290013703,
          -0.11950907221404353,
          -0.1442623771021635,
          -0.0558619542796272,
          0.20494240004865458,
          -0.06619583300288116,
          -0.1985106330916093,
          -0.009811277767151343,
          -0.14836570287366152,
          0.04244663780667676,
          -0.3052407387298246,
          -0.38874004213667507,
          0.14142782802701087,
          -0.15688770807807154,
          0.09725734724253873,
          -0.2482994474415284,
          0.19310660440080127,
          -0.14363339485370125,
          0.06840215770826938,
          0.10563406251639126,
          -0.2645816862849079,
          -0.10088174931475839,
          -0.0445714952710725,
          -0.19310980975362926,
          0.25868847311152043,
          -0.09836769713704915,
          0.014264031137472974,
          -0.07778125926446602,
          0.05466985774197469,
          0.17941339655059643,
          0.00037990547183930357,
          -0.14853422627429558,
          -0.04778316079700348,
          0.2785648463270025,
          -0.020407332434107993,
          -0.19827228221698498,
          0.1578991151015777,
          0.08097063997640051,
          -0.18297122511532957,
          0.19109197549722573,
          -0.21689255830517998,
          0.16935895011698893,
          -0.0636179852203701,
          -0.221927109040174,
          -0.0682150708315995,
          0.29131366026772765,
          -0.23811351993725166,
          0.018170623506376805,
          0.08095503077699781,
          -0.10634918981568361,
          0.11406621656619971,
          0.2570144000043574,
          -0.09968752136854137,
          0.014682577045742884,
          -0.06314459175423547,
          -0.30716687422759575,
          0.2707188022837776,
          -0.12639281217149234,
          -0.010960255798485398,
          0.03202197289676681,
          0.316085225360005,
          -0.20282549169308825,
          0.116019997324276,
          -0.056136574324657657,
          0.11259834705419826,
          0.13736834624976135,
          0.04564679197164573,
          -0.03850640115365117,
          0.29843507892099547,
          -0.19459218124526723,
          -0.02119311532577731,
          -0.24161428156805279,
          0.01040977695540047,
          -0.14780669249032094,
          0.2847613731672885,
          0.008473233816595876,
          -0.014649400446349818,
          0.12587900212263237,
          0.11686624441959775,
          -0.06601434348555099,
          -0.16759186099121715,
          0.0018103335219688682,
          -0.03893195915858033,
          -0.15424242279211473,
          -0.5141848411530558,
          0.03164135901808844,
          0.023507358882742274,
          0.26177984056500897,
          0.18887586852730498,
          -0.016816254257196794,
          -0.16884171717481342,
          -0.15605042120667373,
          0.053675875743977405,
          0.02525816447462957,
          -0.07810136355156524,
          0.18931746968104696,
          -0.05113442490533736,
          0.24592809957525313,
          0.037659640016495674,
          0.13104201857046066,
          0.07984283839065065,
          -0.04807344501495098,
          -0.10590445437311806,
          -0.03968208625643778,
          -0.13286287077653827,
          -0.09857174265027485,
          -0.12690807348898991,
          0.39650758356729865,
          0.07540286201005812,
          -0.2006624258749258,
          0.1900259790851384,
          0.1599779383865168,
          0.03342315616701017,
          0.020861095581768442,
          -0.3680055267770185,
          -0.18035117694667663,
          0.13575078717387634,
          0.1920477366849917,
          0.013934510445046292,
          -0.30603887961040976,
          -0.019519007166174544,
          0.17053360301850637,
          -0.185084010814874,
          0.25236464338465475,
          -0.06671352118409156,
          -0.10586093007951854,
          0.1952539401883387,
          0.22116676565500643,
          0.04433086546556231,
          -0.01258190842219361,
          0.16918682833119247,
          -0.12002014444892063,
          -0.14191034075181413,
          0.4158339620354899,
          0.30460412603141906,
          -0.190096963594973,
          0.32912422799702157,
          -0.19438176779257832,
          0.2979735039980167,
          0.23024386561974802,
          0.06870290227903622,
          -0.11606582370611945,
          0.13200958872798627,
          0.3215182955285812,
          0.19287957517491877,
          0.2956663663494459,
          -0.021679835921041057,
          0.0032630766562485314,
          -0.12100788192039053,
          0.247360665991887,
          0.25863231359577443,
          0.07415356814466152,
          0.010592306684679472,
          -0.273218095900932,
          -0.03746121810816399,
          -0.06832499304190677,
          0.05968831884133871,
          0.0634796084450398,
          -0.015950714019640586,
          -0.11681434425873724,
          -0.11530015623855888,
          0.3300118755075755,
          -0.034870799699271045,
          -0.10645205949848481,
          0.14781706768361463,
          -0.05647065679564366,
          0.15493598749190457,
          -0.06225252944407399,
          0.045633477679917905,
          -0.0656260303495616,
          0.02357232166433961,
          0.13074734324363,
          -0.03705450192186943,
          0.30700008578666504,
          0.053422904342316425,
          0.15103118683536726,
          -0.13800020502759974,
          -0.05639376784786177,
          0.00043708514158738443,
          0.23542474340030137,
          -0.36851369307260573,
          0.024035560444374375,
          0.13563079190908256,
          0.06716191322348194,
          -0.09010539095037104,
          -0.04471045278166595,
          0.14207581264332944,
          -0.00859917996391546,
          -0.05267121158973852,
          -0.3021426962282719,
          -0.20729398422789233,
          0.1215875163454025,
          -0.24909549929560243,
          0.1434790254814298,
          -0.11020881621988662,
          -0.07670556160255104,
          0.1845917525830638,
          0.33192268541288855,
          0.17726764294341546,
          -0.02225236994357001,
          0.04740719318366861,
          0.42686991242273825,
          -0.26525596207424934,
          -0.02208533495752083,
          0.31852402577624017,
          0.15631497441458106,
          -0.09365376048739385,
          0.32617303042244544,
          0.03477609243968614,
          -0.19349973342257204,
          -0.05116428648249102,
          -0.13206021882506835,
          -0.2693953612726605,
          0.3892183077807571,
          -0.03984928244688053,
          -0.13646472746500402,
          0.17793089454336636,
          0.12749721561258387,
          -0.05006492346960154,
          -0.21643372647816878,
          -0.13956425641761233,
          0.35565886084310583,
          -0.13900085949585728,
          -0.03618529504454105,
          -0.2828007891637953,
          0.025531064520067606,
          0.1235432751504592,
          0.14495012983831837,
          -0.05649455631339316,
          -0.07431984862360218,
          -0.0822375520547686,
          -0.056212179015304634,
          -0.12467985248714689,
          -0.45737989795155765,
          -0.14476713942771735,
          0.2183907606335401,
          -0.33284552250440885,
          0.10439639525616687,
          0.09146641172107525,
          -0.149624155388202,
          -0.026613256524493964,
          -0.11439093637278384,
          -0.17912689356386255,
          0.07331706362702518,
          0.0015627336185037519,
          -0.015997061759434904,
          -0.2607160190596055,
          -0.02354098081022199,
          0.06293218614012686,
          0.05136113757291426,
          -0.2983176020826802,
          -0.03601832264995114,
          -0.31358279883557993,
          0.26006542402369204,
          0.07589404244590768,
          -0.04872568017276578,
          -0.25241935192853193,
          0.38060200060128546,
          0.19996553844717382,
          0.1603901683084717,
          0.16640362132200678,
          0.1448101405845779,
          -0.10006950870781858,
          -0.04221135534719698,
          0.23700066441616302,
          0.009151867471501186,
          -0.04075110727621026,
          0.012716727889286825,
          -0.09172266392100248,
          0.18000432248460535,
          -0.2750300333510107,
          0.056433329454133686,
          -0.062440457872743466,
          0.035194179354726546,
          -0.3146648846733859,
          0.00832778053101918,
          -0.2732824958971289,
          0.06303199483556668,
          -0.07003947240268717,
          0.08001878975247778,
          0.1379992020335406,
          0.08430366571896722,
          -0.09633818573997771,
          0.12393323336504572,
          0.0053061560896319315,
          -0.1658418758801347,
          0.09242055631521909,
          -0.031897268698754325,
          -0.013792998455853314,
          0.10033269936580218,
          -0.12299352748716617,
          0.049701121796724756,
          -0.1507195254530332,
          -0.057939000397713436,
          0.12354236661359362,
          -0.02723187674596509,
          0.005992614852922958,
          0.07272404922589182,
          -0.3426183659513212,
          0.04354781817708956,
          0.15135607030651616,
          0.0547400229157776,
          0.18306557325599526,
          0.15024628239512078,
          0.1572781616086355,
          -0.2381101109840357,
          0.3032768690908261,
          0.071965167646279,
          -0.30450394585770574,
          -0.10092425746871325,
          0.20835104940782762,
          -0.12054095910614042,
          -0.1785967755569473,
          -0.05155333849712937,
          0.07842268900494472,
          0.11941091984781327,
          -0.12800580295443303,
          -0.10200606141957291,
          0.07690906124693352,
          -0.09679555258599432,
          0.0017606479604990177,
          0.07142424308799833,
          -0.08005055887667312,
          -0.13813839488497284,
          -0.13356109499281238,
          0.10496130208466664,
          0.2518674666111985,
          0.04654487549242111,
          0.01764894466255498,
          -0.11077326777967636,
          0.08114915849814915,
          -0.1247410230522121,
          -0.01601398551984823,
          0.027761423563486223,
          -0.018211838182517953,
          0.08298032883390746,
          -0.188502545015466,
          -0.020398788953764194,
          0.0012604780001486265,
          -0.11407520832904064,
          0.19821517071807426,
          0.0836805580561867,
          -0.07958860855558242,
          0.027537732343963457,
          0.098171361563762,
          -0.054354646395846626,
          0.34387859455308695,
          -0.14333497229683362,
          -0.029869559778509316,
          -0.10868872790177311,
          0.3641821269234341,
          0.0711441579648637,
          0.21006405739226688,
          0.42890829615418685,
          -0.40770761032005265,
          -0.17827118605787,
          0.062335130010049006,
          0.29325292607228715,
          0.04080238128383245,
          0.053389075757517654,
          -0.17369312311668644,
          -0.04341344666416176,
          -0.2857098969981114,
          -0.0013559425831286415,
          -0.012537249665555,
          -0.07488158876531174,
          0.2038318696234752,
          0.03250943077900233,
          -0.4517563274961504,
          -0.06969806998558235,
          0.22895973654581311,
          0.09167255648488493,
          -0.16708800568323728,
          -0.10043637316946559,
          -0.11664621059689595,
          0.10688455457272206,
          0.16920143231225304,
          0.0645600836799411,
          -0.038662505145568384,
          0.17112867916606136,
          0.09875160185988135,
          -0.004790050431673978,
          0.03950963817342171,
          -0.011322465796742003,
          0.19625546562809465,
          -0.05032480180343393,
          0.12397118484736548,
          0.16365581900211654,
          0.09039616254510868,
          0.05518087644783595,
          0.29188293524543263,
          -0.02687336475124233,
          0.13640460948163863,
          -0.10030009058878246,
          0.023531518292916935,
          -0.007138665739473783,
          0.21479694486412526,
          0.3654680939245608,
          -0.014291939393894948,
          -0.10572331865126648,
          0.050749486261152145,
          -0.23355577436377734,
          -0.16472841457564863,
          0.12316655733301185,
          -0.15089003644343724,
          0.10798802162683958,
          -0.01563369548155283,
          0.06719201422659979,
          0.16300743179982435,
          0.16625490154509265,
          -0.09152887993727732,
          -0.004648704571617535,
          0.2329724681003218,
          -0.04987886578942667,
          0.07310882493114135,
          -0.02515554026766252,
          -0.11933960538385331,
          -0.1851764351576576,
          -0.03523159648293858,
          0.19733076122033,
          -0.15775455325025067,
          -0.16453186711710654,
          0.0815742172550109,
          0.2208335343316726,
          -0.12807523916074703,
          -0.1639313476075645,
          -0.07974705000740952,
          0.07496774409652929,
          -0.1391765366507662,
          -0.1804357664927646,
          -0.15436719038349683,
          0.0677337983664159,
          -0.08812441544494247,
          -0.2217774897450983,
          0.2582373714627095,
          0.37759534475049866,
          0.255580284566664,
          -0.275307739847639,
          -0.2334709780521981,
          0.04491062357230782,
          0.16534223224278666,
          -0.253136301428393,
          0.10663189582985598,
          -0.17429279441991344,
          0.046296040386251715,
          0.023341084440402678,
          -0.15832051236618405,
          0.06434067186573031,
          -0.013848352290546442,
          -0.04114912591049072,
          -0.07009126374294386,
          -0.07244687604992589,
          -0.14442930067206777,
          0.051757313208448605,
          -0.14923083024264056,
          0.0009732785912994868,
          -0.10059354911252222,
          -0.15018238781551563,
          -0.17871236815436314,
          0.22055589855890317,
          -0.235929397387574,
          -0.12235093497687002,
          0.017194546597075585,
          0.048975848786003015,
          0.28555768740011955,
          0.03767818574674234,
          -0.14389361326216968,
          0.25638968824352354,
          -0.1374368453871096,
          -0.04290001139025645,
          0.1563985739354325,
          0.036242378338215156,
          0.05237017522524469,
          0.13813020824238023,
          -0.07020337057120224,
          0.24093012631861477,
          0.08060249587294938,
          0.2600877762275344,
          -0.1320022786698113,
          0.14529574301993106,
          -0.29710651948959044,
          0.15280062900099503,
          0.30375495344860015,
          -0.532697092857726,
          0.1156097817048137,
          0.27197066950051757,
          0.009859784186045908,
          -0.22487127539934637,
          0.15800991926825264,
          -0.09919267025459236,
          -0.14286423705809118,
          0.16062790105593444,
          -0.03122285066494719,
          0.10471640934025378,
          -0.08934707909323823,
          -0.15278170654301562,
          0.08332412616401012,
          0.33131768191156297,
          -0.2991308884866114,
          -0.2522930591962813,
          -0.2483168150461052,
          0.0006408760091659998,
          -0.19237235951975795,
          -0.23479493921782915,
          -0.12691339670362772,
          -0.05920307663225487,
          0.009662697123959008,
          0.058905260718215335,
          0.22332095141972294,
          0.1137423877587784,
          -0.16090595962074594,
          -0.26941870706126003,
          0.2045868649739293,
          0.15478610389044392,
          -0.09213141723624108,
          0.04681703551415989,
          0.20385582661735407,
          -0.03161021406893047,
          0.017099488344330886,
          -0.29385664192436134,
          0.16304492189992456,
          -0.10821235953881686,
          -0.27171056769780244,
          0.0621121437952173,
          0.19631771784252186,
          -0.0779245635256556,
          0.0704910777330462,
          0.03620827497480018,
          -0.06691608022369346,
          -0.35910216315430826,
          -0.08885397932342187,
          0.0996302393119442,
          -0.0017673352725588592,
          -0.08318462184049231,
          0.05304350723710523,
          -0.05757683877408268,
          0.07745750247606126,
          -0.0141631711087217,
          -0.1381702668640337,
          0.03529085515326584,
          -0.1705786189567141,
          -0.001868514223862014,
          -0.08057438206667061,
          0.11033870482582789,
          0.14917129930452283,
          -0.00846808254256699,
          0.0734220849213639,
          0.29975842471740366,
          0.2001235650093415,
          0.01883363208133565,
          0.025545056997263282,
          -0.05732134049754264,
          -0.0087435213016277,
          -0.24137273058250008,
          0.0703752918693201,
          0.2041829634118521,
          0.057311372353331794,
          -0.34316800162711036,
          -0.11246082280930428,
          -0.06999963121373104,
          0.061674040685824764,
          -0.2994798770649216,
          0.1617082336766969,
          0.06552740173840528,
          0.2586344048075821,
          -0.2754106916532958,
          -0.07251141533581926,
          0.17656895195655697,
          0.23447725969862812,
          0.016671640982601404,
          0.35901827410482684,
          0.017018675606249097,
          -0.1672863955290479,
          0.17669665173048277,
          0.01761593424687086,
          0.182342053998084,
          0.17963046021151666,
          -0.28492889054174525,
          -0.13380839957978283,
          0.15331390753462362,
          -0.23918476553157125,
          0.15079858521043202,
          0.05430238491745132,
          0.11572959262177607,
          0.12166760355791759,
          0.012079658155687015,
          -0.37409706461122405,
          0.0880046800502103,
          0.15514939662462948,
          -0.09531362235608024,
          -0.1009313672479285,
          -0.08815987102705827,
          -0.2894555971613292,
          0.07137669018510476,
          0.13879316031496255,
          0.13200507917783016,
          -0.17150297713796336,
          0.24454494462908283,
          -0.12592326105962648,
          -0.06816392237865408,
          0.0669883830702263,
          -0.0408015025020618,
          -0.08513846773203955,
          0.05556796942013528,
          0.2473558703647608,
          -0.05232286765213215,
          0.10848227722715352,
          -0.12276551576373092,
          0.1258455397841659,
          0.07584178062766334,
          -0.031051166540242453,
          -0.5061844575658458,
          0.06509091699997263,
          -0.0726590544534043,
          -0.11776255575099495,
          -0.17093715788156405,
          -0.20314019395862076,
          0.22002762697575795,
          0.043849373663565935,
          -0.01588967615651056,
          0.138150174361593,
          0.11904834741234055,
          -0.031017176846089338,
          0.3225601895635016,
          -0.09205468747008186,
          0.04532516688960148,
          0.2599322962397869,
          -0.03799428266513036,
          0.07253425021840172,
          0.05038325840268006,
          0.1641966040754454,
          0.24642856921559972,
          0.4084202618651059,
          -0.11188189775571408,
          -0.000975404546205462,
          -0.0022861700233211893,
          -0.028258455796034424,
          0.15941843462313884,
          0.19583319251611364,
          -0.03850119605978128,
          -0.017364166618327164,
          -0.3098378624842122,
          -0.12631791390149522,
          0.18233318868709267,
          0.03009944396747894,
          0.19197199374698326,
          0.21585620253822962,
          -0.07525767409768036,
          0.1378074703669368,
          -0.1129170046243805,
          0.2649559194183122,
          -0.05873113452913868,
          0.30343563862075834,
          -0.1167587415023264,
          0.1430693313752152,
          0.17254734681462966,
          -0.23329835693574583,
          -0.2584859682779207,
          0.11294508078443424,
          -0.42101907674915934,
          -0.0006463428487518547,
          0.0426528998440705,
          -0.1993070171895756,
          -0.2603593059089846,
          0.24224289012223119,
          0.011485423657433581,
          0.08561127819358468,
          -0.1478002573546168,
          -0.02096724545106543,
          0.16214405213094635,
          0.09142561409176679,
          -0.10978871516928765,
          0.3520721477172055,
          -0.30795387038491995,
          0.10937584411499456,
          -0.059820697074719216,
          0.05521763694474413,
          0.18263225128745028,
          -0.17400794366443403,
          0.05363064246124617,
          -0.12072374127562892,
          -0.03261931123249058,
          0.0271088655115435,
          -0.033207855836696415,
          0.23417521516493559,
          -0.2606604158336389,
          -0.023961633932057583,
          -0.18315942628259602,
          -0.2376917830751114,
          0.13126636788519735,
          -0.16786556657001175,
          0.16112687608371812,
          -0.0665768527567134,
          -0.29068006436032634,
          -0.021098542571463277,
          0.11786599628687326,
          -0.059465657454053564,
          -0.17874449359707129,
          0.2746135472725149,
          -0.19295537200885055,
          -0.03606515610648961,
          -0.10627377172725748,
          -0.08336526563296824,
          -0.21954745785932533,
          0.146753643431732,
          -0.021972345102096544,
          -0.12776125243776282,
          0.17739552984839158,
          0.08368014086499909,
          0.033497564466017815,
          -0.21939777622145695,
          0.03550604033089756,
          -0.05809012500422529,
          -0.22994230401780924,
          -0.012658276486990638,
          0.0825497544276513,
          0.029728156826052662,
          0.08816693852202337,
          -0.03715168277211815,
          -0.18392834896154803,
          -0.19118235752614957,
          -0.2419916979888347,
          0.20245936458460936,
          0.06370802542802498,
          -0.4930764274924768,
          -0.28668733150331505,
          0.26165122634006355,
          -0.08310236015795062,
          -0.28424423369953894,
          0.19236511734146133,
          -0.25285226620605394,
          0.15983783656532952,
          -0.3374840600524327,
          -0.1598447004193928,
          0.10801612614222905,
          0.03935579551656292,
          0.21695470501259484,
          -0.08484185518669524,
          -0.31952978103911683,
          -0.3006649886925128,
          -0.1552745299615285,
          0.07950569506427729,
          -0.01700837751670424,
          0.0380492516333228,
          0.31454744130696005,
          -0.32408566910021613,
          0.06366256249257388,
          0.06040773114147379,
          -0.04361499902647539,
          -0.1310006125379645,
          0.5073833006728241,
          0.045510224939062295,
          -0.15361597492252438,
          -0.16735700030673326,
          -0.008814302831601159,
          -0.18263031689450637,
          0.03466313526298285,
          0.06668127750797855,
          -0.21936957119820072,
          0.0708470745560505,
          0.0037885222287889625,
          -0.07571049171545949,
          0.0886000292221199,
          0.19541052606086376,
          0.13860741181733055,
          0.14365854525255745,
          0.2452602724417629,
          -0.0698196072359682,
          0.1960576053536316,
          0.14104054875528316,
          0.010942630404353483,
          0.07149331087266261,
          0.15603151823227904,
          0.28849217332666316,
          0.16200380831395395,
          -0.17202629319646442,
          0.033668820938866195,
          -0.1421898880524492,
          -0.0830643069530283,
          0.22615915535551903,
          0.08375761863081353,
          -0.04642696951378398,
          0.46048265045405745,
          -0.18613913793731124,
          -0.16025583283021527,
          0.03413688993559778,
          0.030947066971186064,
          0.2908623926526082,
          -0.05062868640020833,
          -0.04168092956805128,
          -0.034070505063888895,
          -0.020814257470124498,
          -0.12219818276631514,
          -0.018163422796858345,
          -0.202539474480916,
          0.08881926712751899,
          0.1334418510240736,
          0.24105088126532248,
          -0.08402023563898312,
          0.10886533940958916,
          -0.24030750899370473,
          -0.06212711944737945,
          0.00361508842819111,
          -0.26729231790466107,
          0.32512055766492687,
          0.13969163925568495,
          -0.10702611921682334,
          -0.33972636513557875,
          -0.21686485475954403,
          0.1828336277844562,
          -0.16989876128211356,
          -0.36238383478462866,
          0.040781050795714605,
          0.19001302483937962,
          0.034316580875027064,
          -0.038948524334245144,
          0.14703007390431921,
          0.14550461559147038,
          0.11260494382729042,
          0.22281806187865136,
          0.11992946543784509,
          0.04690706031937722,
          0.02715416799266928,
          -0.07417372164490275,
          0.05924699753683556,
          0.2182123738727445,
          -0.03583733723254194,
          -0.058841533786611167,
          -0.11153557825665246,
          0.2466237464594183,
          0.14035955079971518,
          -0.01331874488388752,
          0.22820449517076374,
          0.1368629204257679,
          -0.0994302638101964,
          0.03255241722499231,
          -0.03416094320432003,
          -0.17346597052752355,
          -0.04296946538337187,
          0.097274196592105,
          0.184506358286338,
          -0.13288224792310038,
          0.11691322638470836,
          0.14522865578000368,
          -0.013117434777513872,
          0.14711506402699615,
          0.32988826118734194,
          0.33088780230601345,
          0.1387866081220636,
          0.33110190082412627,
          -0.05961209126623425,
          -0.09299877740031302,
          0.09721947041817128,
          -0.0472004944014643,
          -0.19975301378366772,
          0.22961570267948422,
          0.14931295532465694,
          0.02663555218816513,
          -0.1280733106223685,
          0.011272063948932931,
          -0.06233915911951152,
          -0.003587739310775058,
          0.07471079562534425,
          0.22779032541984576,
          0.31244263608842504,
          -0.1259641865777173,
          0.045220104918227005,
          0.15514923960565208,
          0.27074387816581735,
          -0.3514589675913627,
          -0.17995328392566973,
          -0.07477999269146579,
          0.09272615446114196,
          0.10937586721634984,
          -0.1651677940663637,
          -0.09951266848193804,
          -0.0993073380506797,
          -0.25263486971928967,
          0.06628768996926439,
          -0.08344276285904664,
          0.03900348690572135,
          -0.0963181322637915,
          -0.20457647307128993,
          0.03220015660247357,
          0.07298524573885232,
          -0.040343106944306116,
          -0.10230532252644745,
          -0.09674540780284897,
          0.001027068172089387,
          -0.07484398169696563,
          0.2844601630604723,
          -0.04887946850752864,
          0.007183144576963795,
          0.235925273921918,
          -0.02464747953190907,
          -0.1453224196583886,
          0.04650254545429062,
          0.041178004090028475,
          0.05458269426783422,
          -0.18345194978006654,
          -0.00008258476136991169,
          0.39871983810017286,
          -0.44430351424305986,
          -0.11511508969801201,
          0.06437029534843704,
          0.13587904840517942,
          -0.049675484108344437,
          0.3820200471963447,
          0.13465334469113277,
          -0.21449167900083832,
          -0.5055042903040669,
          0.22686368682020067,
          -0.04664081690044025,
          0.18148684058262404,
          -0.2557986734474096,
          -0.20012132536992228,
          -0.017583394875374338,
          -0.1773022311349306,
          -0.05055862103910415,
          0.15147967820961572,
          0.21292885190508817,
          0.15513045631393618,
          0.06489472221904241,
          0.16103917135438667,
          -0.27943010699154724,
          -0.14174222023208133,
          0.1739392073674434,
          0.1489916814767639,
          0.08384650766834825,
          0.06370799156639746,
          0.06133388386583785,
          -0.22415629533265335,
          -0.030752569972473873,
          -0.07237028174049139,
          -0.39070760805274257,
          0.08522446372745851,
          0.1052598996649301,
          0.10624778232993773,
          -0.13351887739653537,
          0.12466530681123027,
          -0.00996092895284345,
          -0.05041657977991944,
          -0.0377444852396557,
          0.14705780589194067,
          0.12808164211606127,
          0.07092357051536902,
          0.3134635246070373,
          -0.23169143239072315,
          0.14882015567827214,
          0.13918018430529583,
          -0.15905142726676383,
          -0.09966444899779375,
          -0.18440991729844902,
          0.09232803448573054,
          -0.13007465914110447,
          0.18879755021473202,
          -0.16992121470316374,
          0.15509165203589842,
          -0.08446067697664822,
          0.13755056617251848,
          -0.022917817473300205,
          -0.03380603800615417,
          -0.24187247852597615,
          0.10929938214740308,
          -0.13142804563863647,
          -0.17977595653555595,
          -0.2999133329378206,
          0.02155974610079376,
          -0.22809740869617595,
          -0.04211233491784106,
          -0.053348982502108996,
          0.08373951269446278,
          0.11991246853433167,
          0.13390827159924573,
          -0.20245211062237672,
          -0.10221202346795222,
          0.15271934496703476,
          -0.016576155027390432,
          -0.07406100140644149,
          0.22784820726865762,
          -0.0675232680703137,
          -0.04403488685991659,
          -0.15173841327237936,
          0.13243068733047333,
          -0.22567795699695545,
          -0.07660515119627806,
          -0.2020804569431447,
          0.10723752528555847,
          0.3020683130457416,
          0.0352620398710583,
          -0.18803056823320763,
          0.19705769759874864,
          -0.22239813018847485,
          -0.08043043897778497,
          0.0461566691865804,
          -0.038626262374586495,
          0.07175024004976958,
          -0.052069176594219564,
          -0.3802426156630937,
          0.36716026466381935,
          0.2275889943730322,
          -0.01013058162801208,
          0.18796281477428606,
          0.00792055304853509,
          0.019797309150062038,
          -0.14340019579621038,
          0.2806826184359723,
          0.009857915600545709,
          -0.17232599428490245,
          -0.07799581268522024,
          -0.03127731471160909,
          0.01980902433745519,
          0.07774247103559406,
          0.1585768999800907,
          0.07964763606942193,
          0.15590540499649452,
          -0.07526950979813496,
          0.08521047917791649,
          0.01482304691072666,
          -0.12427756158570243,
          0.14750191779220895,
          0.2796886231152145,
          0.4655319085846152,
          -0.13128196133062658,
          -0.061217497314120725,
          0.01079973948019581,
          0.09328856959849724,
          -0.03566176858632729,
          -0.19720183476860792,
          0.054440815732808824,
          0.0871371147103091,
          -0.007634034919984739,
          -0.08641545340441294,
          -0.04396397259602065,
          0.10046679976337133,
          -0.04162281759900736,
          0.015332691623394719,
          -0.19911077767915722,
          0.11329477587098807,
          -0.04044409884649038,
          0.3398171069314897,
          -0.02590264265777399,
          0.2740992042515984,
          0.10551863913787732,
          -0.06651395336030912,
          0.2250879195993781,
          -0.16510792672695915,
          0.08746222423604079,
          -0.035573171685231816,
          -0.10651008755825161,
          0.13848264062140786,
          -0.10373230199665927,
          -0.03406580695516014,
          0.1190556275551641,
          -0.18631697761985364,
          -0.27458385030967825,
          0.3398389601138366,
          0.016683270151881077,
          0.34556242529291126,
          0.027553279096038663,
          0.03569936088988197,
          -0.08657421483897852,
          -0.11719704301707289,
          0.08534183364249884,
          -0.22482830112047666,
          -0.004608837212788295,
          0.35342585776578206,
          -0.004566323666615954,
          0.1683204157282342,
          -0.22581232433296283,
          0.041151949657624295,
          0.1682805356735498,
          -0.1128934942584862,
          0.13268155418580865,
          0.03683009315850898,
          -0.14556135063119352,
          -0.02734170881781277,
          -0.03773869869287437,
          0.015475950098868041,
          -0.0674866791137248,
          0.006852598049201075,
          -0.00467669513563794,
          -0.2735945300858389,
          -0.0012355870093645818,
          -0.024205239829105454,
          0.18865552293227855,
          0.19352770031619662,
          0.1290309770494458,
          -0.16289548453862274,
          0.33969540195510706,
          -0.14061422911341276,
          -0.30084299500904166,
          0.14087971665976573,
          -0.03735253116793359,
          -0.026196211968613763,
          -0.05252868516946274,
          0.29992889131128464,
          0.03798917197830859,
          0.14627926556286336,
          0.18681769419235675,
          -0.055060953803215525,
          -0.03894809465969662,
          0.10319808721728688,
          0.03052271574643102,
          0.1193591948155161,
          -0.060410511994032245,
          -0.10913462484156042,
          0.0038742277502312114,
          -0.0796698746115859,
          0.006047176896074362,
          0.03866351778906934,
          0.028338062733851224,
          -0.12783940935840094,
          0.036589611265611624,
          0.039033495925576533,
          -0.022423259365242393,
          0.0892305592608536,
          0.008224481981072812,
          0.1318893093529554,
          0.13157152297399538,
          -0.20970585151400883,
          0.06455672648227977,
          0.005983532138376768,
          -0.15408009815790652,
          -0.3241138631719297,
          -0.20621361562728024,
          0.09058207097146341,
          -0.18012192935316546,
          0.003930164771416521,
          -0.26869589481238015,
          0.1717035861554446,
          -0.1784298305133163,
          -0.08560546011720084,
          0.11499848677342936,
          -0.20054883317273048,
          0.13467671302360165,
          0.20395723825316736,
          -0.15282200920183292,
          0.126719882018615,
          0.15081096849829423,
          0.1578205909091454,
          0.03190263544259818,
          -0.09449506818807045,
          -0.1920399167856019,
          0.15743639890561248,
          -0.1574322178917504,
          -0.08592546267241186,
          -0.25371840680313235,
          -0.22727945609518166,
          -0.1749049366852158,
          -0.14166497830097474,
          0.02248206830858076,
          -0.015154284489430639,
          -0.03954451558802312,
          0.03546060525998288,
          0.15648088952740424,
          0.0663553668762972,
          0.1625968461166875,
          -0.17923444299255342,
          0.019737491321632952,
          -0.23268346998517025,
          -0.16571878154770575,
          0.15493238482334779,
          -0.35837274300272615,
          -0.12189063757068097,
          -0.2841387755132812,
          -0.21958037638305555,
          0.008189405827457795,
          -0.19342360728487826,
          0.08014009592009878,
          -0.11202354416386981,
          0.04505193919352904,
          -0.0350128212239818,
          0.09567095011244517,
          0.17591574645935554,
          -0.14555645449971583,
          0.06812633507539739,
          0.054505329174156285,
          0.011118290569648637,
          -0.15079695410692254,
          -0.0888674944963678,
          0.24759484012148092,
          0.007800384744857017,
          0.38991937734216187,
          -0.003906882650072857,
          0.04248952133710894,
          0.18920452421857253,
          -0.18568038312879243,
          0.012657357570058161,
          0.13166787255984574,
          0.296360446945961,
          -0.2190665847242172,
          0.10613499056648248,
          -0.14743684320846118,
          0.059220848026846434,
          0.12671625878172782,
          -0.08031166207963643,
          -0.04632447735614874,
          -0.20821748950570096,
          -0.1248651193302853,
          -0.34932159812913854,
          -0.1662654289060857,
          -0.1279750698893738,
          -0.11553505733447525,
          -0.1931722295941697,
          0.2295410001177371,
          0.15700646988497213,
          -0.21330822202407215,
          0.05364726383723489,
          -0.1658504754349883,
          -0.1925165910565866,
          0.10023877996098375,
          -0.07735939168705791,
          0.03329166127403561,
          -0.318953080452179,
          0.03736008266045861,
          0.2975156800050441,
          -0.12093467100099274,
          0.02813843620452653,
          -0.1180280847404587,
          -0.11407498640595794,
          -0.26229328885164843,
          0.10442825336118311,
          -0.2327044395733354,
          0.318825724405626,
          0.11968691329835615,
          -0.02600530675294268,
          -0.06254569476934048,
          -0.08892255496175418,
          0.3070726090825705,
          -0.11578492804428361,
          0.005111313251835711,
          0.016400962255865348,
          -0.23656135985421706,
          0.2237538714473028,
          -0.056860936719950406,
          -0.23978850201214455,
          -0.24596518095017916,
          0.1986783238201768,
          0.2018857740401678,
          0.10142756280202567,
          -0.06516812868500316,
          0.03591762951383324,
          -0.050969218426913265,
          0.02156315004443976,
          -0.1640559289422353,
          -0.14559042176690984,
          0.24022675590355844,
          -0.1354896300077144,
          0.12782326912591513,
          0.03502458470584054,
          0.2199280029564574,
          -0.019331204777873805,
          0.014461646663279759,
          -0.39234032874651753,
          -0.18052302178717616,
          -0.09712454680767649,
          0.06976872277352915,
          -0.045225764479632835,
          -0.07007731584514519,
          -0.10279350258526501,
          0.043149260583925944,
          -0.3281594748896576,
          -0.13988645098399588,
          0.0798162639146657,
          -0.12817284027932013,
          0.18984402960833605,
          0.11175687504101488,
          0.07388228064515187,
          0.3910274012486309,
          -0.03164199820502591,
          -0.21227590258508877,
          0.2430833306907017,
          -0.11174265691756935,
          0.1544911309601658,
          0.101224807814001,
          0.1720402614850513,
          -0.03197155868071453,
          0.05361577052587894,
          0.22729355527471892,
          0.032645298349097115,
          0.04020014911190285,
          0.0880306570172745,
          0.021829342098633686,
          0.1288380308468766,
          -0.28897947196724544,
          -0.008498867887832405,
          0.13048643272643407,
          -0.0940914927661704,
          -0.13058991003978276,
          0.11857723462679652,
          0.016055844629021654,
          0.02673406175212128,
          0.002188075763494706,
          -0.060739218541907954,
          0.11696261465098627,
          -0.10810755032526002,
          0.26892406339212754,
          0.2246387699232041,
          -0.08234801543690819,
          -0.0010518997570641356,
          -0.07436113701677292,
          0.2026201247064479,
          0.0515622226373486,
          -0.04792455011997382,
          0.1108366287695112,
          -0.34259851248275686,
          0.4340507982767965,
          0.2502873217008538,
          0.3210177793638928,
          -0.10610811653910407,
          0.14317340459903946,
          -0.007981031991016754,
          -0.19939622559220008,
          -0.024094859041413078,
          0.007299651675485103,
          -0.039101408171396526,
          -0.03033456418638042,
          -0.05306042057420342,
          0.22174904093807157,
          -0.06828462830435955,
          0.12493426713184974,
          0.08400742940950523,
          -0.26160649094742533,
          -0.057138514531821206,
          0.11696193127749901,
          0.24218632533795842,
          -0.3243545413515164,
          0.3121416804186565,
          0.02420111727232356,
          -0.14466289218711864,
          -0.09322000402016756,
          0.12207553197465058,
          0.09101341918588031,
          0.03877040211568275,
          0.07281625257175774,
          0.04440135829976439,
          -0.19125826500515627,
          -0.14651677750884273,
          0.10346931437803646,
          -0.1238730069934377,
          0.2644320167318529,
          -0.23781285880529027,
          0.19586221282842703,
          -0.16284919058556857,
          -0.16447027388777877,
          -0.029497107015949563,
          0.040843907482166465,
          0.08289983196420772,
          -0.18530922312904147,
          -0.19462116186843775,
          -0.1757613051209209,
          0.026380969456899328,
          -0.31195927542978025,
          0.24090107629586482,
          -0.05913187914668025,
          0.020107082206786503,
          -0.04979394876940812,
          -0.128225159278793,
          -0.10098799683616741,
          -0.04015498580520983,
          -0.07387611428065866,
          -0.0855573934023002,
          -0.036595118834692866,
          -0.07446811147368573,
          0.10108946513399181,
          -0.0018858009386221314,
          -0.01148792973404468,
          -0.1466790986513832,
          -0.5160342700159994,
          0.3032547935233106,
          0.08031585314990407,
          0.18248891237590484,
          -0.2143244383120574,
          0.07260172215861037,
          0.18940576852639482,
          -0.044376596160275936,
          0.16719917571277168,
          0.311127044870582,
          -0.3107451654659032,
          0.17757347218682595,
          -0.10761054740702072,
          0.08477046670554643,
          0.1998363033908262,
          0.05596513613768812,
          -0.10927260431986792,
          -0.025997509758379764,
          0.20164432801678284,
          -0.2797695122888658,
          -0.24626669497251596,
          0.24924801267439717,
          0.18724143442718444,
          -0.12806742601129514,
          -0.11111976032887064,
          -0.12183506002990403,
          0.15699264063801438,
          0.10913699855752804,
          -0.25443016877615987,
          0.13702626941292156,
          0.17970521348878638,
          0.1640318559485232,
          -0.039185106740201356,
          0.029835395104937636,
          -0.08926203104843493,
          0.06352538854560401,
          -0.056992809201165506,
          -0.07358341012205882,
          -0.0674341601870812,
          0.2066484283638143,
          0.08864946815441109,
          -0.08091368396573204,
          0.19011431465749665,
          -0.008585443132800543,
          0.16403822870945592,
          -0.19287855090531206,
          -0.02112936459206998,
          0.2646301491271564,
          -0.0027557195828618597,
          -0.09161221262824498,
          -0.2933602214345698,
          0.15060016922438932,
          0.08454545644339094,
          0.003511138324990165,
          -0.14125894341156908,
          -0.006295045762642379,
          -0.07895859289199952,
          0.10173050980749493,
          0.11730091054735423,
          0.08075361858259392,
          0.10662366959404489,
          -0.025337409730923362,
          -0.23527587279975914,
          -0.0056163614566725195,
          -0.014787141933767043,
          -0.14254459541013104,
          0.013476692306829685,
          -0.1078685421471225,
          -0.18108186894268946,
          -0.15596400468637997,
          -0.16755588002053184,
          0.14714793954919636,
          -0.03757735908700759,
          -0.16733394765055143,
          -0.040977171346491176,
          0.054208317721889464,
          -0.10692082753096474,
          -0.0750358802004678,
          0.07500082506280033,
          0.23255074359866573,
          -0.150566497186243,
          -0.20381116890308246,
          -0.19490665405586205,
          0.14349142965181927,
          -0.07054790573737162,
          -0.1087342301281424,
          -0.034372561047781636,
          -0.06374324381298688,
          -0.01804563562504373,
          -0.1324698321970099,
          0.1762069873291448,
          -0.23484510329536548,
          0.14524564856951208,
          -0.16885793880073885,
          -0.022126081529714445,
          -0.13705447944325772,
          -0.23566749712183585,
          -0.22996073298872644,
          0.15271646451253754,
          -0.043521148731183304,
          -0.1329155666454025,
          -0.19557669608382305,
          0.027545999774456903,
          0.01059235766923339,
          -0.0473465709370005,
          -0.16731903743235077,
          0.0893797836329292,
          0.07175446568759364,
          0.06476636271206983,
          0.10623718268138625,
          -0.08339320630361059,
          -0.059064227980845145,
          0.03964031019284439,
          0.06554734716590321,
          -0.001533905400333756,
          0.10076505405921356,
          -0.17278711584080014,
          -0.11066497604069497,
          0.041835274773623865,
          0.010238026095209227,
          0.07723932207840702,
          0.26749273386202205,
          0.004171503506487897,
          0.03240055002148888,
          0.056455132044129705,
          -0.06137963689816092,
          -0.07141265631611189,
          0.1685069918282972,
          0.18841172491394959,
          -0.08125600821823506,
          -0.08529600723780822,
          -0.08347682593019412,
          -0.03575660718275538,
          0.002956661721412887,
          -0.06969930320174429,
          -0.04399354262486391,
          -0.09848747552495693,
          -0.0067669708403323495,
          -0.061699882891201305,
          -0.1099327954242853,
          -0.3677679455090221,
          -0.09091647164655112,
          0.01241392970011313,
          -0.04050968601613746,
          0.22892793487907592,
          0.03238308305364909,
          0.14314593951260007,
          0.09154011928959804,
          0.06264483109334798,
          -0.15355617009782832,
          -0.05670625997229335,
          -0.1831473346900801,
          0.20387195058649488,
          0.07131802528411652,
          -0.16901125685413043,
          0.04592746343451573,
          0.04980351848493833,
          0.10989317516319688,
          -0.0017026778359445283,
          0.22351219510973075,
          -0.013760242813315643,
          -0.1676908274067365,
          0.1454334443363801,
          0.06957993968440589,
          -0.14226287565239235,
